{
  "task": "temperature_next",
  "features": [
    "temp_t",
    "hum_t",
    "pres_t",
    "wind_t"
  ],
  "per_city": {
    "Bogota": {
      "weights": [
        1.0052992778180694,
        -0.008833984247558782,
        0.12354464286929456,
        -0.09519261023829273
      ],
      "bias": -124.55379410537535,
      "method": "linear"
    },
    "Medellín": {
      "weights": [
        1.0016018588366853,
        -0.03175005369346451,
        0.2750274631904457,
        -0.2946544631219048
      ],
      "bias": -275.55707798012236,
      "method": "linear"
    },
    "Santiago de Cali": {
      "weights": [
        0.6220844738949403,
        -0.08921346686658826,
        0.0705385942858534,
        -0.4150075982210666
      ],
      "bias": -55.22146695507945,
      "method": "linear"
    },
    "Barranquilla": {
      "weights": [
        0.9209376137580345,
        0.011583779026213215,
        0.3848836827616502,
        -0.15963438372163807
      ],
      "bias": -386.425429356339,
      "method": "linear"
    },
    "Cartagena": {
      "weights": [
        0.8988257311754495,
        -0.004962559510523157,
        0.45081861644997545,
        0.02295380036402861
      ],
      "bias": -451.92217530038033,
      "method": "linear"
    },
    "Cúcuta": {
      "weights": [
        0.8910733434911151,
        -0.014330685286104483,
        0.2320174983954182,
        0.08814678905823836
      ],
      "bias": -231.46329648818573,
      "method": "linear"
    },
    "Bucaramanga": {
      "weights": [
        0.923711174376183,
        -0.016790882106732907,
        0.26488821940399454,
        0.007349494769409937
      ],
      "bias": -265.4250104977564,
      "method": "linear"
    },
    "Pereira": {
      "weights": [
        0.9678244866735501,
        -0.0033651049356288043,
        0.11945682418012193,
        -0.0991641495005684
      ],
      "bias": -119.94819294385479,
      "method": "linear"
    },
    "Manizales": {
      "weights": [
        0.905848899532379,
        -0.005253641125797848,
        0.2059973865582183,
        0.1901800465103527
      ],
      "bias": -207.6785904782264,
      "method": "linear"
    },
    "Armenia": {
      "weights": [
        0.9493482845333974,
        0.0002979942785779066,
        0.03766449774727754,
        -0.11690280921138196
      ],
      "bias": -37.08292575062205,
      "method": "linear"
    },
    "Santa Marta": {
      "weights": [
        0.7583019935545998,
        0.011482308012988218,
        0.17628015473409908,
        -0.08817803151424286
      ],
      "bias": -171.52257736731735,
      "method": "linear"
    },
    "Riohacha": {
      "weights": [
        0.6866903786839487,
        -0.010852292883588355,
        0.14600090203742272,
        0.3825841419324476
      ],
      "bias": -140.10757370441752,
      "method": "linear"
    },
    "Valledupar": {
      "weights": [
        1.3742348288131794,
        0.07157637673810968,
        0.4425511893759131,
        0.023822515305099046
      ],
      "bias": -462.1291952869692,
      "method": "linear"
    },
    "Montería": {
      "weights": [
        1.1660680306503295,
        0.033643022591892,
        0.5099968940312465,
        -0.10308621838890986
      ],
      "bias": -522.0199093211331,
      "method": "linear"
    },
    "Sincelejo": {
      "weights": [
        0.8679364439043269,
        -0.03815031870323615,
        0.5244166197930004,
        -0.20922343787847808
      ],
      "bias": -522.4714072559434,
      "method": "linear"
    },
    "Neiva": {
      "weights": [
        0.9238965681467395,
        -0.0038095481557378352,
        0.18627756470392698,
        0.23832238764501223
      ],
      "bias": -186.42770409931268,
      "method": "linear"
    },
    "Florencia": {
      "weights": [
        0.9456536677318965,
        -0.00430559085838822,
        0.253306511849973,
        -0.010919162301593843
      ],
      "bias": -254.115042380746,
      "method": "linear"
    },
    "Popayán": {
      "weights": [
        0.9725357339713883,
        -0.04769777602852132,
        0.2863638697998403,
        -0.2938567942917274
      ],
      "bias": -285.31980252163294,
      "method": "linear"
    },
    "Pasto": {
      "weights": [
        0.6088731810814625,
        -0.06522824966797636,
        -0.024084758464657963,
        -0.07506579212125608
      ],
      "bias": 35.57234202457994,
      "method": "linear"
    },
    "Mocoa": {
      "weights": [
        0.7735967203782357,
        -0.06380010654361601,
        0.24996930557823327,
        -0.15086299580414675
      ],
      "bias": -242.35152000860649,
      "method": "linear"
    },
    "Tunja": {
      "weights": [
        0.9975039511911681,
        -0.03943760583130895,
        0.2932439250822093,
        -0.26454049294307325
      ],
      "bias": -294.3810691042795,
      "method": "linear"
    },
    "Yopal": {
      "weights": [
        1.0118421440486518,
        -0.009023267085423115,
        0.4540770899047404,
        0.10077321516911297
      ],
      "bias": -458.6734898808354,
      "method": "linear"
    },
    "Villavicencio": {
      "weights": [
        1.0410567584440429,
        -0.0034443787329858644,
        0.3185309113325556,
        -0.24625448453403465
      ],
      "bias": -322.58601654724407,
      "method": "linear"
    },
    "Leticia": {
      "weights": [
        1.1124952924414622,
        0.0961636557540535,
        0.11403422004670816,
        0.019650450751392157
      ],
      "bias": -126.82951670191687,
      "method": "linear"
    },
    "San Andrés": {
      "weights": [
        0.4716301242026333,
        -0.06693219060378341,
        0.24668646390832372,
        0.2366828415199862
      ],
      "bias": -231.66373536833635,
      "method": "linear"
    },
    "Quibdó": {
      "weights": [
        0.8178780315058418,
        -0.022574523921791823,
        0.08641186331107575,
        0.12855661219671788
      ],
      "bias": -80.75077635479647,
      "method": "linear"
    },
    "Mitú": {
      "weights": [
        0.8432083968177011,
        -0.01218278559495456,
        0.3310476366317907,
        0.9946377401019788
      ],
      "bias": -330.38709171644587,
      "method": "linear"
    },
    "Puerto Carreño": {
      "weights": [
        0.9686989121940073,
        -0.0012666197283959235,
        0.3567280715083818,
        0.1409535745865469
      ],
      "bias": -359.52908825635313,
      "method": "linear"
    },
    "Inírida": {
      "weights": [
        0.8707823564509667,
        -0.03173229673293676,
        0.43204947387640935,
        0.31947815544758384
      ],
      "bias": -430.33135761829226,
      "method": "linear"
    }
  },
  "default": {
    "weights": [
      0,
      0,
      0,
      0
    ],
    "bias": 20.0,
    "method": "default"
  }
}